digraph Tree {
node [shape=box] ;
0 [label="X[3] <= 5.65\nmse = 0.094\nsamples = 800\nvalue = 0.895"] ;
1 [label="X[9] <= 24.8\nmse = 0.202\nsamples = 117\nvalue = 0.282"] ;
0 -> 1 [labeldistance=2.5, labelangle=45, headlabel="True"] ;
2 [label="X[4] <= 4.95\nmse = 0.14\nsamples = 101\nvalue = 0.168"] ;
1 -> 2 ;
3 [label="mse = 0.0\nsamples = 72\nvalue = 0.0"] ;
2 -> 3 ;
4 [label="X[5] <= 1.95\nmse = 0.243\nsamples = 29\nvalue = 0.586"] ;
2 -> 4 ;
5 [label="mse = 0.188\nsamples = 16\nvalue = 0.25"] ;
4 -> 5 ;
6 [label="mse = 0.0\nsamples = 13\nvalue = 1.0"] ;
4 -> 6 ;
7 [label="mse = 0.0\nsamples = 16\nvalue = 1.0"] ;
1 -> 7 ;
8 [label="mse = 0.0\nsamples = 683\nvalue = 1.0"] ;
0 -> 8 [labeldistance=2.5, labelangle=-45, headlabel="False"] ;
}